network unknown {
}
variable Attention_Type {
    type discrete [ 2 ] { Early, Other };
}
variable CAM_Cluster {
    type discrete [ 3 ] { 0, 1, 2 };
}
variable EDP_State {
    type discrete [ 3 ] { Lower, Normal, Peak };
}
variable Humidity {
    type discrete [ 4 ] { High, Low, Medium, VeryHigh };
}
variable Temperature {
    type discrete [ 4 ] { High, Low, Medium, VeryHigh };
}
probability ( Attention_Type | CAM_Cluster, Temperature ) {
    ( 0, High ) 0.29775280898876405, 0.702247191011236;
    ( 0, Low ) 0.7912087912087912, 0.2087912087912088;
    ( 0, Medium ) 0.6021505376344086, 0.3978494623655914;
    ( 0, VeryHigh ) 0.27631578947368424, 0.7236842105263158;
    ( 1, High ) 0.9090909090909091, 0.09090909090909091;
    ( 1, Low ) 0.7017543859649122, 0.2982456140350877;
    ( 1, Medium ) 0.9154929577464789, 0.08450704225352113;
    ( 1, VeryHigh ) 0.9375, 0.0625;
    ( 2, High ) 0.5169082125603864, 0.4830917874396135;
    ( 2, Low ) 0.72265625, 0.27734375;
    ( 2, Medium ) 0.6596638655462185, 0.3403361344537815;
    ( 2, VeryHigh ) 0.5136612021857924, 0.48633879781420764;

}
probability ( CAM_Cluster | Temperature ) {
    ( High ) 0.3595959595959596, 0.2222222222222222, 0.41818181818181815;
    ( Low ) 0.36767676767676766, 0.11515151515151516, 0.5171717171717172;
    ( Medium ) 0.37575757575757573, 0.14343434343434344, 0.4808080808080808;
    ( VeryHigh ) 0.30707070707070705, 0.32323232323232326, 0.3696969696969697;

}
probability ( EDP_State | Attention_Type, Temperature ) {
    ( Early, High ) 0.18076923076923077, 0.33076923076923076, 0.48846153846153845;
    ( Early, Low ) 0.4444444444444444, 0.37669376693766937, 0.17886178861788618;
    ( Early, Medium ) 0.2994011976047904, 0.36826347305389223, 0.3323353293413174;
    ( Early, VeryHigh ) 0.26573426573426573, 0.44405594405594406, 0.2902097902097902;
    ( Other, High ) 0.3191489361702128, 0.574468085106383, 0.10638297872340426;
    ( Other, Low ) 0.4523809523809524, 0.4603174603174603, 0.0873015873015873;
    ( Other, Medium ) 0.32298136645962733, 0.5900621118012422, 0.08695652173913043;
    ( Other, VeryHigh ) 0.21052631578947367, 0.583732057416268, 0.20574162679425836;

}
probability ( Humidity ) {
    table 0.25, 0.25, 0.25, 0.25 ;
}
probability ( Temperature | Humidity ) {
    ( High ) 0.2727272727272727, 0.26666666666666666, 0.32323232323232326, 0.13737373737373737;
    ( Low ) 0.27070707070707073, 0.03232323232323232, 0.15757575757575756, 0.5393939393939394;
    ( Medium ) 0.32727272727272727, 0.15555555555555556, 0.23636363636363636, 0.2808080808080808;
    ( VeryHigh ) 0.1292929292929293, 0.5454545454545454, 0.2828282828282828, 0.04242424242424243;

}
